digraph Tree {
node [shape=box, style="filled, rounded", color="black", fontname="helvetica"] ;
edge [fontname="helvetica"] ;
0 [label="CNT <= 5743.5\ngini = 0.408\nsamples = 62630\nvalue = [17873, 44757]", fillcolor="#88c4ef"] ;
1 [label="Raw H2 <= 13204.5\ngini = 0.384\nsamples = 24130\nvalue = [17873, 6257]", fillcolor="#eead7e"] ;
0 -> 1 [labeldistance=2.5, labelangle=45, headlabel="True"] ;
2 [label="Pressure[hPa] <= 933.979\ngini = 0.209\nsamples = 17315\nvalue = [15257, 2058]", fillcolor="#e99254"] ;
1 -> 2 ;
3 [label="CNT <= 36.5\ngini = 0.041\nsamples = 1011\nvalue = [21, 990]", fillcolor="#3d9fe6"] ;
2 -> 3 ;
4 [label="gini = 0.0\nsamples = 21\nvalue = [21, 0]", fillcolor="#e58139"] ;
3 -> 4 ;
5 [label="gini = 0.0\nsamples = 990\nvalue = [0, 990]", fillcolor="#399de5"] ;
3 -> 5 ;
6 [label="Humidity[%] <= 57.445\ngini = 0.122\nsamples = 16304\nvalue = [15236, 1068]", fillcolor="#e78a47"] ;
2 -> 6 ;
7 [label="CNT <= 3319.5\ngini = 0.083\nsamples = 15854\nvalue = [15162, 692]", fillcolor="#e68742"] ;
6 -> 7 ;
8 [label="CNT <= 4.5\ngini = 0.001\nsamples = 12542\nvalue = [12538, 4]", fillcolor="#e58139"] ;
7 -> 8 ;
9 [label="PM2.5 <= 2.3\ngini = 0.32\nsamples = 20\nvalue = [16, 4]", fillcolor="#eca06a"] ;
8 -> 9 ;
10 [label="gini = 0.0\nsamples = 16\nvalue = [16, 0]", fillcolor="#e58139"] ;
9 -> 10 ;
11 [label="gini = 0.0\nsamples = 4\nvalue = [0, 4]", fillcolor="#399de5"] ;
9 -> 11 ;
12 [label="gini = 0.0\nsamples = 12522\nvalue = [12522, 0]", fillcolor="#e58139"] ;
8 -> 12 ;
13 [label="Pressure[hPa] <= 938.561\ngini = 0.329\nsamples = 3312\nvalue = [2624, 688]", fillcolor="#eca26d"] ;
7 -> 13 ;
14 [label="gini = 0.0\nsamples = 2624\nvalue = [2624, 0]", fillcolor="#e58139"] ;
13 -> 14 ;
15 [label="gini = 0.0\nsamples = 688\nvalue = [0, 688]", fillcolor="#399de5"] ;
13 -> 15 ;
16 [label="Raw H2 <= 13089.0\ngini = 0.275\nsamples = 450\nvalue = [74, 376]", fillcolor="#60b0ea"] ;
6 -> 16 ;
17 [label="gini = 0.0\nsamples = 58\nvalue = [58, 0]", fillcolor="#e58139"] ;
16 -> 17 ;
18 [label="Pressure[hPa] <= 938.365\ngini = 0.078\nsamples = 392\nvalue = [16, 376]", fillcolor="#41a1e6"] ;
16 -> 18 ;
19 [label="gini = 0.0\nsamples = 16\nvalue = [16, 0]", fillcolor="#e58139"] ;
18 -> 19 ;
20 [label="gini = 0.0\nsamples = 376\nvalue = [0, 376]", fillcolor="#399de5"] ;
18 -> 20 ;
21 [label="Pressure[hPa] <= 939.62\ngini = 0.473\nsamples = 6815\nvalue = [2616, 4199]", fillcolor="#b4daf5"] ;
1 -> 21 ;
22 [label="CNT <= 1657.5\ngini = 0.169\nsamples = 2713\nvalue = [2460, 253]", fillcolor="#e88e4d"] ;
21 -> 22 ;
23 [label="CNT <= 32.5\ngini = 0.154\nsamples = 143\nvalue = [12, 131]", fillcolor="#4ba6e7"] ;
22 -> 23 ;
24 [label="gini = 0.0\nsamples = 12\nvalue = [12, 0]", fillcolor="#e58139"] ;
23 -> 24 ;
25 [label="gini = 0.0\nsamples = 131\nvalue = [0, 131]", fillcolor="#399de5"] ;
23 -> 25 ;
26 [label="Pressure[hPa] <= 938.179\ngini = 0.09\nsamples = 2570\nvalue = [2448, 122]", fillcolor="#e68743"] ;
22 -> 26 ;
27 [label="gini = 0.0\nsamples = 2182\nvalue = [2182, 0]", fillcolor="#e58139"] ;
26 -> 27 ;
28 [label="CNT <= 3177.5\ngini = 0.431\nsamples = 388\nvalue = [266, 122]", fillcolor="#f1bb94"] ;
26 -> 28 ;
29 [label="gini = 0.0\nsamples = 266\nvalue = [266, 0]", fillcolor="#e58139"] ;
28 -> 29 ;
30 [label="gini = 0.0\nsamples = 122\nvalue = [0, 122]", fillcolor="#399de5"] ;
28 -> 30 ;
31 [label="NC1.0 <= 1.503\ngini = 0.073\nsamples = 4102\nvalue = [156, 3946]", fillcolor="#41a1e6"] ;
21 -> 31 ;
32 [label="gini = 0.0\nsamples = 156\nvalue = [156, 0]", fillcolor="#e58139"] ;
31 -> 32 ;
33 [label="gini = 0.0\nsamples = 3946\nvalue = [0, 3946]", fillcolor="#399de5"] ;
31 -> 33 ;
34 [label="gini = 0.0\nsamples = 38500\nvalue = [0, 38500]", fillcolor="#399de5"] ;
0 -> 34 [labeldistance=2.5, labelangle=-45, headlabel="False"] ;
}