digraph Tree {
node [shape=box, style="filled, rounded", color="black", fontname="helvetica"] ;
edge [fontname="helvetica"] ;
0 [label="CNT <= 5743.5\ngini = 0.408\nsamples = 62630\nvalue = [17873, 44757]", fillcolor="#88c4ef"] ;
1 [label="UTC <= 51146.5\ngini = 0.384\nsamples = 24130\nvalue = [17873, 6257]", fillcolor="#eead7e"] ;
0 -> 1 [labeldistance=2.5, labelangle=45, headlabel="True"] ;
2 [label="NC0.5 <= 8.415\ngini = 0.5\nsamples = 12647\nvalue = [6392, 6255]", fillcolor="#fefcfb"] ;
1 -> 2 ;
3 [label="Unnamed: 0 <= 1654764672.0\ngini = 0.155\nsamples = 6864\nvalue = [6282, 582]", fillcolor="#e78d4b"] ;
2 -> 3 ;
4 [label="CNT <= 3315.0\ngini = 0.011\nsamples = 6317\nvalue = [6282, 35]", fillcolor="#e5823a"] ;
3 -> 4 ;
5 [label="gini = 0.0\nsamples = 6282\nvalue = [6282, 0]", fillcolor="#e58139"] ;
4 -> 5 ;
6 [label="gini = 0.0\nsamples = 35\nvalue = [0, 35]", fillcolor="#399de5"] ;
4 -> 6 ;
7 [label="gini = 0.0\nsamples = 547\nvalue = [0, 547]", fillcolor="#399de5"] ;
3 -> 7 ;
8 [label="UTC <= 3177.5\ngini = 0.037\nsamples = 5783\nvalue = [110, 5673]", fillcolor="#3d9fe6"] ;
2 -> 8 ;
9 [label="gini = 0.0\nsamples = 37\nvalue = [37, 0]", fillcolor="#e58139"] ;
8 -> 9 ;
10 [label="CNT <= 32.5\ngini = 0.025\nsamples = 5746\nvalue = [73, 5673]", fillcolor="#3c9ee5"] ;
8 -> 10 ;
11 [label="Raw Ethanol <= 20749.0\ngini = 0.1\nsamples = 38\nvalue = [36, 2]", fillcolor="#e68844"] ;
10 -> 11 ;
12 [label="gini = 0.0\nsamples = 36\nvalue = [36, 0]", fillcolor="#e58139"] ;
11 -> 12 ;
13 [label="gini = 0.0\nsamples = 2\nvalue = [0, 2]", fillcolor="#399de5"] ;
11 -> 13 ;
14 [label="NC0.5 <= 8.975\ngini = 0.013\nsamples = 5708\nvalue = [37, 5671]", fillcolor="#3a9ee5"] ;
10 -> 14 ;
15 [label="Raw H2 <= 13150.5\ngini = 0.3\nsamples = 163\nvalue = [30, 133]", fillcolor="#66b3eb"] ;
14 -> 15 ;
16 [label="gini = 0.0\nsamples = 124\nvalue = [0, 124]", fillcolor="#399de5"] ;
15 -> 16 ;
17 [label="Unnamed: 0 <= 1654764672.0\ngini = 0.355\nsamples = 39\nvalue = [30, 9]", fillcolor="#eda774"] ;
15 -> 17 ;
18 [label="Temperature[C] <= 10.042\ngini = 0.062\nsamples = 31\nvalue = [30, 1]", fillcolor="#e68540"] ;
17 -> 18 ;
19 [label="gini = 0.0\nsamples = 1\nvalue = [0, 1]", fillcolor="#399de5"] ;
18 -> 19 ;
20 [label="gini = 0.0\nsamples = 30\nvalue = [30, 0]", fillcolor="#e58139"] ;
18 -> 20 ;
21 [label="gini = 0.0\nsamples = 8\nvalue = [0, 8]", fillcolor="#399de5"] ;
17 -> 21 ;
22 [label="NC0.5 <= 9.075\ngini = 0.003\nsamples = 5545\nvalue = [7, 5538]", fillcolor="#399de5"] ;
14 -> 22 ;
23 [label="Raw H2 <= 13173.5\ngini = 0.102\nsamples = 37\nvalue = [2, 35]", fillcolor="#44a3e6"] ;
22 -> 23 ;
24 [label="gini = 0.0\nsamples = 35\nvalue = [0, 35]", fillcolor="#399de5"] ;
23 -> 24 ;
25 [label="gini = 0.0\nsamples = 2\nvalue = [2, 0]", fillcolor="#e58139"] ;
23 -> 25 ;
26 [label="CNT <= 3177.5\ngini = 0.002\nsamples = 5508\nvalue = [5, 5503]", fillcolor="#399de5"] ;
22 -> 26 ;
27 [label="Unnamed: 0 <= 1654833792.0\ngini = 0.017\nsamples = 574\nvalue = [5, 569]", fillcolor="#3b9ee5"] ;
26 -> 27 ;
28 [label="gini = 0.0\nsamples = 5\nvalue = [5, 0]", fillcolor="#e58139"] ;
27 -> 28 ;
29 [label="gini = 0.0\nsamples = 569\nvalue = [0, 569]", fillcolor="#399de5"] ;
27 -> 29 ;
30 [label="gini = 0.0\nsamples = 4934\nvalue = [0, 4934]", fillcolor="#399de5"] ;
26 -> 30 ;
31 [label="CNT <= 4.5\ngini = 0.0\nsamples = 11483\nvalue = [11481, 2]", fillcolor="#e58139"] ;
1 -> 31 ;
32 [label="Temperature[C] <= 20.159\ngini = 0.48\nsamples = 5\nvalue = [3, 2]", fillcolor="#f6d5bd"] ;
31 -> 32 ;
33 [label="gini = 0.0\nsamples = 3\nvalue = [3, 0]", fillcolor="#e58139"] ;
32 -> 33 ;
34 [label="gini = 0.0\nsamples = 2\nvalue = [0, 2]", fillcolor="#399de5"] ;
32 -> 34 ;
35 [label="gini = 0.0\nsamples = 11478\nvalue = [11478, 0]", fillcolor="#e58139"] ;
31 -> 35 ;
36 [label="gini = 0.0\nsamples = 38500\nvalue = [0, 38500]", fillcolor="#399de5"] ;
0 -> 36 [labeldistance=2.5, labelangle=-45, headlabel="False"] ;
}